<?xml version="1.0"?>
<opencv_storage>
<stage5>
  <maxWeakCount>12</maxWeakCount>
  <stageThreshold>-3.6659207940101624e-01</stageThreshold>
  <weakClassifiers>
    <_>
      <internalNodes>
        0 -1 55499 -6.4156547188758850e-02</internalNodes>
      <leafValues>
        3.9880952239036560e-01 -5.0757575035095215e-01</leafValues></_>
    <_>
      <internalNodes>
        0 -1 381849 6.0012738686054945e-04</internalNodes>
      <leafValues>
        2.3451378941535950e-01 -7.8537589311599731e-01</leafValues></_>
    <_>
      <internalNodes>
        0 -1 18739 2.2513067815452814e-03</internalNodes>
      <leafValues>
        2.0411013066768646e-01 -9.2731523513793945e-01</leafValues></_>
    <_>
      <internalNodes>
        0 -1 365254 -5.4886336438357830e-03</internalNodes>
      <leafValues>
        5.7394510507583618e-01 -3.3118152618408203e-01</leafValues></_>
    <_>
      <internalNodes>
        0 -1 18820 -9.0798112796619534e-04</internalNodes>
      <leafValues>
        -7.9398828744888306e-01 2.3389585316181183e-01</leafValues></_>
    <_>
      <internalNodes>
        0 -1 392992 -1.7486060969531536e-03</internalNodes>
      <leafValues>
        2.4397587776184082e-01 -6.1793953180313110e-01</leafValues></_>
    <_>
      <internalNodes>
        0 -1 117182 1.0254916269332170e-03</internalNodes>
      <leafValues>
        -5.4354888200759888e-01 2.7799841761589050e-01</leafValues></_>
    <_>
      <internalNodes>
        0 -1 390741 4.2087296023964882e-03</internalNodes>
      <leafValues>
        1.2329858541488647e-01 -9.1636061668395996e-01</leafValues></_>
    <_>
      <internalNodes>
        0 -1 388530 -1.0938446503132582e-03</internalNodes>
      <leafValues>
        -8.4188443422317505e-01 1.8729187548160553e-01</leafValues></_>
    <_>
      <internalNodes>
        0 -1 8043 9.5839567482471466e-02</internalNodes>
      <leafValues>
        -3.9505201578140259e-01 4.4704470038414001e-01</leafValues></_>
    <_>
      <internalNodes>
        0 -1 281942 3.4163880627602339e-04</internalNodes>
      <leafValues>
        -4.0314629673957825e-01 4.1543138027191162e-01</leafValues></_>
    <_>
      <internalNodes>
        0 -1 209103 8.1138946115970612e-03</internalNodes>
      <leafValues>
        -3.2350614666938782e-01 5.4361504316329956e-01</leafValues></_></weakClassifiers></stage5>
</opencv_storage>
